digraph Tree {
node [shape=box, style="filled, rounded", color="black", fontname=helvetica] ;
edge [fontname=helvetica] ;
0 [label="priceEarningsRatio <= 0.117\ngini = 0.381\nsamples = 1308\nvalue = [335, 973]\nclass = l", fillcolor="#7dbfee"] ;
1 [label="priceCashFlowRatio <= 0.036\ngini = 0.5\nsamples = 300\nvalue = [148, 152]\nclass = l", fillcolor="#fafcfe"] ;
0 -> 1 [labeldistance=2.5, labelangle=45, headlabel="True"] ;
2 [label="gini = 0.444\nsamples = 90\nvalue = [60, 30]\nclass = C", fillcolor="#f2c09c"] ;
1 -> 2 ;
3 [label="gini = 0.487\nsamples = 210\nvalue = [88, 122]\nclass = l", fillcolor="#c8e4f8"] ;
1 -> 3 ;
4 [label="payoutRatio <= 0.423\ngini = 0.302\nsamples = 1008\nvalue = [187, 821]\nclass = l", fillcolor="#66b3eb"] ;
0 -> 4 [labeldistance=2.5, labelangle=-45, headlabel="False"] ;
5 [label="gini = 0.419\nsamples = 338\nvalue = [101, 237]\nclass = l", fillcolor="#8dc7f0"] ;
4 -> 5 ;
6 [label="gini = 0.224\nsamples = 670\nvalue = [86, 584]\nclass = l", fillcolor="#56abe9"] ;
4 -> 6 ;
}